digraph Tree {
node [shape=box] ;
0 [label="X[1] <= 4.5\ngini = 0.5\nsamples = 8\nvalue = [4, 4]"] ;
1 [label="gini = 0.0\nsamples = 4\nvalue = [4, 0]"] ;
0 -> 1 [labeldistance=2.5, labelangle=45, headlabel="True"] ;
2 [label="gini = 0.0\nsamples = 4\nvalue = [0, 4]"] ;
0 -> 2 [labeldistance=2.5, labelangle=-45, headlabel="False"] ;
}